digraph Tree {
node [shape=box] ;
0 [label="nr.employed <= 5087.65\ngini = 0.201\nsamples = 24712\nvalue = [21910, 2802]\nclass = no"] ;
1 [label="duration <= 172.5\ngini = 0.494\nsamples = 2982\nvalue = [1650, 1332]\nclass = no"] ;
0 -> 1 [labeldistance=2.5, labelangle=45, headlabel="True"] ;
2 [label="pdays <= 6.5\ngini = 0.28\nsamples = 1152\nvalue = [958, 194]\nclass = no"] ;
1 -> 2 ;
3 [label="mon <= 0.5\ngini = 0.489\nsamples = 165\nvalue = [95, 70]\nclass = no"] ;
2 -> 3 ;
4 [label="euribor3m <= 0.715\ngini = 0.5\nsamples = 124\nvalue = [62, 62]\nclass = no"] ;
3 -> 4 ;
5 [label="fri <= 0.5\ngini = 0.35\nsamples = 31\nvalue = [7, 24]\nclass = no"] ;
4 -> 5 ;
6 [label="gini = 0.219\nsamples = 24\nvalue = [3, 21]\nclass = no"] ;
5 -> 6 ;
7 [label="gini = 0.49\nsamples = 7\nvalue = [4, 3]\nclass = no"] ;
5 -> 7 ;
8 [label="sep <= 0.5\ngini = 0.483\nsamples = 93\nvalue = [55, 38]\nclass = no"] ;
4 -> 8 ;
9 [label="gini = 0.444\nsamples = 72\nvalue = [48, 24]\nclass = no"] ;
8 -> 9 ;
10 [label="gini = 0.444\nsamples = 21\nvalue = [7, 14]\nclass = no"] ;
8 -> 10 ;
11 [label="duration <= 158.5\ngini = 0.314\nsamples = 41\nvalue = [33, 8]\nclass = no"] ;
3 -> 11 ;
12 [label="campaign <= 1.5\ngini = 0.229\nsamples = 38\nvalue = [33, 5]\nclass = no"] ;
11 -> 12 ;
13 [label="gini = 0.0\nsamples = 14\nvalue = [14, 0]\nclass = no"] ;
12 -> 13 ;
14 [label="gini = 0.33\nsamples = 24\nvalue = [19, 5]\nclass = no"] ;
12 -> 14 ;
15 [label="gini = 0.0\nsamples = 3\nvalue = [0, 3]\nclass = no"] ;
11 -> 15 ;
16 [label="duration <= 123.5\ngini = 0.22\nsamples = 987\nvalue = [863, 124]\nclass = no"] ;
2 -> 16 ;
17 [label="duration <= 81.5\ngini = 0.135\nsamples = 620\nvalue = [575, 45]\nclass = no"] ;
16 -> 17 ;
18 [label="pdays <= 13.5\ngini = 0.039\nsamples = 252\nvalue = [247, 5]\nclass = no"] ;
17 -> 18 ;
19 [label="gini = 0.444\nsamples = 3\nvalue = [2, 1]\nclass = no"] ;
18 -> 19 ;
20 [label="gini = 0.032\nsamples = 249\nvalue = [245, 4]\nclass = no"] ;
18 -> 20 ;
21 [label="euribor3m <= 1.264\ngini = 0.194\nsamples = 368\nvalue = [328, 40]\nclass = no"] ;
17 -> 21 ;
22 [label="gini = 0.177\nsamples = 346\nvalue = [312, 34]\nclass = no"] ;
21 -> 22 ;
23 [label="gini = 0.397\nsamples = 22\nvalue = [16, 6]\nclass = no"] ;
21 -> 23 ;
24 [label="emp.var.rate <= -1.75\ngini = 0.338\nsamples = 367\nvalue = [288, 79]\nclass = no"] ;
16 -> 24 ;
25 [label="age <= 23.5\ngini = 0.39\nsamples = 290\nvalue = [213, 77]\nclass = no"] ;
24 -> 25 ;
26 [label="gini = 0.49\nsamples = 14\nvalue = [6, 8]\nclass = no"] ;
25 -> 26 ;
27 [label="gini = 0.375\nsamples = 276\nvalue = [207, 69]\nclass = no"] ;
25 -> 27 ;
28 [label="unemployed <= 0.5\ngini = 0.051\nsamples = 77\nvalue = [75, 2]\nclass = no"] ;
24 -> 28 ;
29 [label="gini = 0.026\nsamples = 75\nvalue = [74, 1]\nclass = no"] ;
28 -> 29 ;
30 [label="gini = 0.5\nsamples = 2\nvalue = [1, 1]\nclass = no"] ;
28 -> 30 ;
31 [label="pdays <= 16.5\ngini = 0.47\nsamples = 1830\nvalue = [692, 1138]\nclass = no"] ;
1 -> 31 ;
32 [label="campaign <= 3.5\ngini = 0.277\nsamples = 541\nvalue = [90, 451]\nclass = no"] ;
31 -> 32 ;
33 [label="duration <= 191.5\ngini = 0.255\nsamples = 500\nvalue = [75, 425]\nclass = no"] ;
32 -> 33 ;
34 [label="cellular <= 0.5\ngini = 0.414\nsamples = 58\nvalue = [17, 41]\nclass = no"] ;
33 -> 34 ;
35 [label="gini = 0.0\nsamples = 2\nvalue = [2, 0]\nclass = no"] ;
34 -> 35 ;
36 [label="gini = 0.392\nsamples = 56\nvalue = [15, 41]\nclass = no"] ;
34 -> 36 ;
37 [label="euribor3m <= 1.261\ngini = 0.228\nsamples = 442\nvalue = [58, 384]\nclass = no"] ;
33 -> 37 ;
38 [label="gini = 0.213\nsamples = 429\nvalue = [52, 377]\nclass = no"] ;
37 -> 38 ;
39 [label="gini = 0.497\nsamples = 13\nvalue = [6, 7]\nclass = no"] ;
37 -> 39 ;
40 [label="duration <= 545.0\ngini = 0.464\nsamples = 41\nvalue = [15, 26]\nclass = no"] ;
32 -> 40 ;
41 [label="euribor3m <= 0.668\ngini = 0.496\nsamples = 33\nvalue = [15, 18]\nclass = no"] ;
40 -> 41 ;
42 [label="gini = 0.0\nsamples = 4\nvalue = [0, 4]\nclass = no"] ;
41 -> 42 ;
43 [label="gini = 0.499\nsamples = 29\nvalue = [15, 14]\nclass = no"] ;
41 -> 43 ;
44 [label="gini = 0.0\nsamples = 8\nvalue = [0, 8]\nclass = no"] ;
40 -> 44 ;
45 [label="duration <= 250.5\ngini = 0.498\nsamples = 1289\nvalue = [602, 687]\nclass = no"] ;
31 -> 45 ;
46 [label="cons.conf.idx <= -28.35\ngini = 0.481\nsamples = 427\nvalue = [255, 172]\nclass = no"] ;
45 -> 46 ;
47 [label="campaign <= 4.5\ngini = 0.488\nsamples = 390\nvalue = [225, 165]\nclass = no"] ;
46 -> 47 ;
48 [label="gini = 0.493\nsamples = 368\nvalue = [206, 162]\nclass = no"] ;
47 -> 48 ;
49 [label="gini = 0.236\nsamples = 22\nvalue = [19, 3]\nclass = no"] ;
47 -> 49 ;
50 [label="euribor3m <= 0.723\ngini = 0.307\nsamples = 37\nvalue = [30, 7]\nclass = no"] ;
46 -> 50 ;
51 [label="gini = 0.5\nsamples = 8\nvalue = [4, 4]\nclass = no"] ;
50 -> 51 ;
52 [label="gini = 0.185\nsamples = 29\nvalue = [26, 3]\nclass = no"] ;
50 -> 52 ;
53 [label="nr.employed <= 5013.1\ngini = 0.481\nsamples = 862\nvalue = [347, 515]\nclass = no"] ;
45 -> 53 ;
54 [label="duration <= 520.5\ngini = 0.433\nsamples = 338\nvalue = [107, 231]\nclass = no"] ;
53 -> 54 ;
55 [label="gini = 0.474\nsamples = 241\nvalue = [93, 148]\nclass = no"] ;
54 -> 55 ;
56 [label="gini = 0.247\nsamples = 97\nvalue = [14, 83]\nclass = no"] ;
54 -> 56 ;
57 [label="age <= 24.5\ngini = 0.496\nsamples = 524\nvalue = [240, 284]\nclass = no"] ;
53 -> 57 ;
58 [label="gini = 0.387\nsamples = 42\nvalue = [11, 31]\nclass = no"] ;
57 -> 58 ;
59 [label="gini = 0.499\nsamples = 482\nvalue = [229, 253]\nclass = no"] ;
57 -> 59 ;
60 [label="duration <= 525.5\ngini = 0.126\nsamples = 21730\nvalue = [20260, 1470]\nclass = no"] ;
0 -> 60 [labeldistance=2.5, labelangle=-45, headlabel="False"] ;
61 [label="cons.conf.idx <= -46.65\ngini = 0.05\nsamples = 19395\nvalue = [18894, 501]\nclass = no"] ;
60 -> 61 ;
62 [label="euribor3m <= 1.526\ngini = 0.296\nsamples = 1462\nvalue = [1198, 264]\nclass = no"] ;
61 -> 62 ;
63 [label="euribor3m <= 1.368\ngini = 0.251\nsamples = 1304\nvalue = [1112, 192]\nclass = no"] ;
62 -> 63 ;
64 [label="duration <= 223.5\ngini = 0.459\nsamples = 151\nvalue = [97, 54]\nclass = no"] ;
63 -> 64 ;
65 [label="gini = 0.123\nsamples = 76\nvalue = [71, 5]\nclass = no"] ;
64 -> 65 ;
66 [label="gini = 0.453\nsamples = 75\nvalue = [26, 49]\nclass = no"] ;
64 -> 66 ;
67 [label="age <= 30.5\ngini = 0.211\nsamples = 1153\nvalue = [1015, 138]\nclass = no"] ;
63 -> 67 ;
68 [label="gini = 0.421\nsamples = 196\nvalue = [137, 59]\nclass = no"] ;
67 -> 68 ;
69 [label="gini = 0.151\nsamples = 957\nvalue = [878, 79]\nclass = no"] ;
67 -> 69 ;
70 [label="duration <= 186.5\ngini = 0.496\nsamples = 158\nvalue = [86, 72]\nclass = no"] ;
62 -> 70 ;
71 [label="duration <= 94.0\ngini = 0.389\nsamples = 102\nvalue = [75, 27]\nclass = no"] ;
70 -> 71 ;
72 [label="gini = 0.127\nsamples = 44\nvalue = [41, 3]\nclass = no"] ;
71 -> 72 ;
73 [label="gini = 0.485\nsamples = 58\nvalue = [34, 24]\nclass = no"] ;
71 -> 73 ;
74 [label="no <= 0.5\ngini = 0.316\nsamples = 56\nvalue = [11, 45]\nclass = no"] ;
70 -> 74 ;
75 [label="gini = 0.42\nsamples = 30\nvalue = [9, 21]\nclass = no"] ;
74 -> 75 ;
76 [label="gini = 0.142\nsamples = 26\nvalue = [2, 24]\nclass = no"] ;
74 -> 76 ;
77 [label="oct <= 0.5\ngini = 0.026\nsamples = 17933\nvalue = [17696, 237]\nclass = no"] ;
61 -> 77 ;
78 [label="duration <= 395.5\ngini = 0.024\nsamples = 17904\nvalue = [17685, 219]\nclass = no"] ;
77 -> 78 ;
79 [label="euribor3m <= 1.276\ngini = 0.011\nsamples = 16615\nvalue = [16522, 93]\nclass = no"] ;
78 -> 79 ;
80 [label="gini = 0.074\nsamples = 982\nvalue = [944, 38]\nclass = no"] ;
79 -> 80 ;
81 [label="gini = 0.007\nsamples = 15633\nvalue = [15578, 55]\nclass = no"] ;
79 -> 81 ;
82 [label="euribor3m <= 1.286\ngini = 0.176\nsamples = 1289\nvalue = [1163, 126]\nclass = no"] ;
78 -> 82 ;
83 [label="gini = 0.415\nsamples = 109\nvalue = [77, 32]\nclass = no"] ;
82 -> 83 ;
84 [label="gini = 0.147\nsamples = 1180\nvalue = [1086, 94]\nclass = no"] ;
82 -> 84 ;
85 [label="duration <= 76.0\ngini = 0.471\nsamples = 29\nvalue = [11, 18]\nclass = no"] ;
77 -> 85 ;
86 [label="housemaid <= 0.5\ngini = 0.245\nsamples = 7\nvalue = [6, 1]\nclass = no"] ;
85 -> 86 ;
87 [label="gini = 0.0\nsamples = 6\nvalue = [6, 0]\nclass = no"] ;
86 -> 87 ;
88 [label="gini = 0.0\nsamples = 1\nvalue = [0, 1]\nclass = no"] ;
86 -> 88 ;
89 [label="euribor3m <= 4.984\ngini = 0.351\nsamples = 22\nvalue = [5, 17]\nclass = no"] ;
85 -> 89 ;
90 [label="gini = 0.117\nsamples = 16\nvalue = [1, 15]\nclass = no"] ;
89 -> 90 ;
91 [label="gini = 0.444\nsamples = 6\nvalue = [4, 2]\nclass = no"] ;
89 -> 91 ;
92 [label="duration <= 827.5\ngini = 0.486\nsamples = 2335\nvalue = [1366, 969]\nclass = no"] ;
60 -> 92 ;
93 [label="euribor3m <= 1.402\ngini = 0.437\nsamples = 1464\nvalue = [992, 472]\nclass = no"] ;
92 -> 93 ;
94 [label="euribor3m <= 1.349\ngini = 0.499\nsamples = 274\nvalue = [130, 144]\nclass = no"] ;
93 -> 94 ;
95 [label="duration <= 645.5\ngini = 0.498\nsamples = 242\nvalue = [128, 114]\nclass = no"] ;
94 -> 95 ;
96 [label="gini = 0.468\nsamples = 134\nvalue = [84, 50]\nclass = no"] ;
95 -> 96 ;
97 [label="gini = 0.483\nsamples = 108\nvalue = [44, 64]\nclass = no"] ;
95 -> 97 ;
98 [label="entrepreneur <= 0.5\ngini = 0.117\nsamples = 32\nvalue = [2, 30]\nclass = no"] ;
94 -> 98 ;
99 [label="gini = 0.062\nsamples = 31\nvalue = [1, 30]\nclass = no"] ;
98 -> 99 ;
100 [label="gini = 0.0\nsamples = 1\nvalue = [1, 0]\nclass = no"] ;
98 -> 100 ;
101 [label="duration <= 644.5\ngini = 0.399\nsamples = 1190\nvalue = [862, 328]\nclass = no"] ;
93 -> 101 ;
102 [label="cons.price.idx <= 93.956\ngini = 0.331\nsamples = 621\nvalue = [491, 130]\nclass = no"] ;
101 -> 102 ;
103 [label="gini = 0.387\nsamples = 377\nvalue = [278, 99]\nclass = no"] ;
102 -> 103 ;
104 [label="gini = 0.222\nsamples = 244\nvalue = [213, 31]\nclass = no"] ;
102 -> 104 ;
105 [label="age <= 35.5\ngini = 0.454\nsamples = 569\nvalue = [371, 198]\nclass = no"] ;
101 -> 105 ;
106 [label="gini = 0.492\nsamples = 227\nvalue = [128, 99]\nclass = no"] ;
105 -> 106 ;
107 [label="gini = 0.411\nsamples = 342\nvalue = [243, 99]\nclass = no"] ;
105 -> 107 ;
108 [label="telephone <= 0.5\ngini = 0.49\nsamples = 871\nvalue = [374, 497]\nclass = no"] ;
92 -> 108 ;
109 [label="fri <= 0.5\ngini = 0.477\nsamples = 579\nvalue = [227, 352]\nclass = no"] ;
108 -> 109 ;
110 [label="nov <= 0.5\ngini = 0.463\nsamples = 465\nvalue = [169, 296]\nclass = no"] ;
109 -> 110 ;
111 [label="gini = 0.45\nsamples = 404\nvalue = [138, 266]\nclass = no"] ;
110 -> 111 ;
112 [label="gini = 0.5\nsamples = 61\nvalue = [31, 30]\nclass = no"] ;
110 -> 112 ;
113 [label="duration <= 1290.0\ngini = 0.5\nsamples = 114\nvalue = [58, 56]\nclass = no"] ;
109 -> 113 ;
114 [label="gini = 0.49\nsamples = 86\nvalue = [49, 37]\nclass = no"] ;
113 -> 114 ;
115 [label="gini = 0.436\nsamples = 28\nvalue = [9, 19]\nclass = no"] ;
113 -> 115 ;
116 [label="euribor3m <= 4.856\ngini = 0.5\nsamples = 292\nvalue = [147, 145]\nclass = no"] ;
108 -> 116 ;
117 [label="age <= 55.5\ngini = 0.437\nsamples = 65\nvalue = [44, 21]\nclass = no"] ;
116 -> 117 ;
118 [label="gini = 0.406\nsamples = 60\nvalue = [43, 17]\nclass = no"] ;
117 -> 118 ;
119 [label="gini = 0.32\nsamples = 5\nvalue = [1, 4]\nclass = no"] ;
117 -> 119 ;
120 [label="duration <= 1314.0\ngini = 0.496\nsamples = 227\nvalue = [103, 124]\nclass = no"] ;
116 -> 120 ;
121 [label="gini = 0.5\nsamples = 176\nvalue = [88, 88]\nclass = no"] ;
120 -> 121 ;
122 [label="gini = 0.415\nsamples = 51\nvalue = [15, 36]\nclass = no"] ;
120 -> 122 ;
}